1,0.21282794719930803,-0.0016861374192514253,-0.05791813783811536,0.2026229085796107,0.06986079953249005,-0.017314874129590443,-0.364052725819187,0.05103236986817268,0.007257677595988944,0.16704647033546519,-0.3997092210526388,0.19807778690514216,0.00800206549737114,0.2508910026257973,-0.44786409762831203,-0.24176950811717743,0.19807778690514216,0.0,0.2571576162205582,-0.6638614926205034,-0.024036661222365717,-0.2972545283768475
2,0.3852109452685826,0.08511333760068275,0.027843665682803335,-0.00401247403762032,0.20436716258081208,-0.011805883462678144,0.04823389511850231,0.06023546188732987,0.04134356014266788,0.06928343835565795,-0.6332125132284468,0.12314084663918447,0.0,-0.03665100147107258,-0.38868558265360814,-0.2617333373872868,0.12314084663918447,0.0,0.09270675704224832,-0.7526193438749079,-0.027157334679303046,-1.408752625140668
4,0.8123777007636498,0.0402476605405773,0.08499753170834072,0.31826259733553713,0.3011146649586374,0.06193479360397198,0.0350579812570525,0.12571835559395056,0.07271118880823571,-0.08664821315729128,-0.4962711805044613,-0.0016212330236956244,0.0,-0.018112297872492585,-0.37865276948278276,-0.1845330932827802,-0.0016212330236956244,0.0,0.2917310476746105,-0.839796715059138,-0.033232493253529345,-1.6310492890423558
8,0.5197949741942304,0.011159363656382877,-0.12379777949015316,0.49639924915899447,0.10441839248106041,-0.18795908676759387,0.12018197703336365,0.1787940320278028,0.08381963167836101,-0.1360963112836024,-0.524805226329256,-0.002300234428703455,0.0,-0.036084760099696765,-0.35841413098868513,-0.2641024120957755,-0.002300234428703455,0.0,0.3308146506122869,-0.9720215572719766,-0.01739439652447164,-0.9253543792752664
16,0.6197086974996138,0.05572851961264585,-0.09170261998961023,0.5542373913947745,0.13999015320847516,-0.16231314382025888,0.04111181715456299,0.263967519856645,0.10602946610526921,-0.13726975103034483,-0.6987520230826874,-0.0013583586148234017,0.0,-0.06299860692447452,-0.4559835192025141,-0.31568128937121487,-0.0013583586148234017,0.0,-0.19866756658098106,-0.6228441468576832,-0.013151702059541377,-1.7852338175547806
32,0.5815878932408838,0.030725030913355836,-0.05415140195571561,0.61928460372437,0.11275697610286778,-0.12135418224298797,-0.14321341676299665,-0.27505098435023295,0.10730072067159435,-0.12975893870609834,-0.7162864310820468,-0.001253270209749086,0.0,-0.06921471746488836,-0.45299648305562407,-0.3225808990578845,-0.001253270209749086,0.0,-0.2118498649136577,-0.6179937612873004,-0.014948473377440513,-2.2409496567353973
64,0.21283034447364677,-0.013712803253825899,0.1776608928422047,0.9066981112110357,-0.17048924201749519,-0.1535318971594203,-0.07497899428432123,-0.3794107200175363,0.1360988799156332,-0.2087615231191738,-0.8643517464402254,-0.001248347158602995,0.0,-0.02934154739541177,-0.5244546035540959,-0.5180687714512876,-0.001248347158602995,0.0,-0.13321660423708215,-0.9386483181637083,0.0,-2.5200093703121107
128,0.2754755854088572,0.05983599973369829,0.23491534532435074,0.8621912856546105,-0.023584999549961242,0.17124658172912155,-0.17195666792410388,-0.16809699970476225,0.139917632985304,-0.17532789343255514,-0.9278955033723786,-0.0011804211545604773,0.0,0.0,-0.5673077969965683,-0.5347351786538084,-0.0011804211545604773,0.0,0.0,-1.1020429756503718,0.0,-3.032305269155382
129,-0.1564130884559,-0.022125951517634433,-0.5314626051411477,0.26915070421830045,0.06315757753435741,-0.027736739007377016,-0.38686950854924457,-0.3824977666274524,0.0909272907490984,0.0,-0.7169440507403864,0.0,0.0,-0.17688194693655493,-0.19576278351691764,-0.34429932028691757,0.0,0.0,-0.19898665330005236,-0.5179573974403383,0.0,-1.3830228284264976
65,0.3298239666282424,-0.03758025752571656,-0.012102495580199537,0.37054805963849463,0.046942380575131684,0.15575740562282317,-0.3357627035376308,0.0779166921383805,0.10697940327725852,-0.049450118788668354,-0.79406172566984,0.0,0.0,-0.1241811540789122,-0.3130163175505751,-0.40631437282902355,0.0,0.0,-0.3801955043769693,-0.4311932518528785,-0.032123088228662916,-2.071811533908799
130,0.5843341143570271,-0.018035254315320493,0.0016194155051701938,0.34006879747379803,0.3464477567171704,0.1780864660407774,-0.4474257742157097,0.2566754142914508,0.10516004120695367,0.0,-0.8291665274288131,0.0,0.0,0.0,-0.2548716195626,-0.5742949078662027,0.0,0.0,-0.27928984623729625,-0.5498766811915166,0.0,-2.4218672538762487
131,0.05302860579287272,0.030244113649996126,-0.00019941887357895587,0.39341246348007197,-0.0839584094686682,-0.09777930077670076,-0.2615032129452631,0.01495984844881429,0.10747444853328698,-0.08107634817411276,-0.7663388321061642,0.0,0.0,-0.18728394237893672,-0.39068253974939554,-0.26944869815193706,0.0,0.0,-0.40446591862360953,-0.39624156957413387,-0.04670769208252472,-1.7048217990312038
33,-0.06004214025918054,0.04795050426494898,-0.28851614854596663,0.24092154258723958,0.23515836476643495,-0.05547701790086827,0.8730148232810445,0.32669343886727276,0.12038326645173335,-0.1657413816425615,-0.7834573240509968,0.0,0.0,0.0,-0.4370256964303678,-0.5121730092631858,0.0,0.0,0.0,-0.9491987056935577,0.0,-0.8227910101303996
66,-0.5248082246532859,-0.034177462955959206,0.25523340646402376,0.1219252511223382,-0.21680404848012003,0.21286399796005082,0.9730802784608189,-0.32097538703999245,0.08923800562159051,-0.2042316826196065,-0.4993926825545149,0.0,0.0,0.0,-0.42334314274049245,-0.28028122243362685,0.0,0.0,0.0,-0.7036243651741222,0.0,-1.6995254115295646
133,-0.32246970929214497,0.041002970976235294,-0.13794310474386856,0.1916929619275653,-0.043714203543590985,-0.19490628070477503,-0.2755339696719415,-0.0041031154766841315,0.06475971049143786,0.0,-0.510617756033456,0.0,0.0,0.0,-0.13205536104430263,-0.3785623949891583,0.0,0.0,0.0,-0.510617756033456,0.0,-1.4094241191758379
67,0.20978567644931975,4.03285607975309,1.8723458752904454,-0.08070410843277531,7.640160146389155,-3.50334277711669,0.11600177253101007,0.43095321438640916,-0.027264301438208263,0.0,0.21497372848876703,0.0,0.0,0.0,-2.1874104385836244,2.402384167072393,0.0,0.0,0.0,0.21497372848876703,0.0,0.1135956821668258
17,-0.21196143269635395,-6.352936263940309,1.4194305014905089,0.07205403864583633,1.151665390344709,4.227602960279237,-0.1035684101249609,-0.9765970347261184,0.024342044880116313,0.0,-0.19193230234705855,0.0,0.0,1.658401975364189,0.20880873305788591,-2.059143010769134,0.0,0.0,-0.1378853216240231,-0.05404698072303609,0.0,-0.12787157429227025
9,-0.006248088054762554,-0.06730511713914579,0.06921104194759925,0.11690385582288286,0.554621272846256,0.14228069884439773,-0.1688804763182587,-0.001506701653050337,0.08937615789296602,-0.03972400494158795,-0.7143595001366362,0.0,0.0,-0.03164763694938431,-0.2645009312723793,-0.4579349368564544,0.0,0.0,-0.2656032306582591,-0.42825156250874413,-0.06022871191122449,-1.3846153250492477
18,0.6662062906428446,-0.33039775490563567,0.669638414614355,0.00854995917655412,1.0804186689583664,0.1852688936051056,0.06256040122487704,-0.05358273081138118,0.11341090712003153,-0.16106903234858042,-0.7331539724161779,0.0,0.0,-0.05324472064577008,0.043499519302965355,-0.8844778034219558,0.0,0.0,-0.12809333153720867,-0.4497089465514418,-0.3164207266761042,-0.7100238747085983
36,0.4379898227401591,-0.1951796569616622,0.4940989021624365,-0.04462864479373918,0.844905895677086,0.0873622589695252,0.04861039835052246,-0.08801497303828751,0.1243628408330958,-0.2032114015317358,-0.7773654762561453,0.0,0.0,-0.06908994758094131,-0.10081346140907728,-0.8106734687978625,0.0,0.0,-0.1927311764255305,-0.5056444942158334,-0.2822012071465096,-2.379066292237264
72,-0.31381207790527516,-1.229031136268759,0.12267350146529014,0.29795485306414,2.794956473331601,0.5636426256898494,-0.9402005803020245,0.4096558471966932,0.26252649665447614,-0.23589744602202115,-1.8340730588454617,0.0,0.0,-0.027013744685152417,-1.0973294692684321,-0.9456272909138972,0.0,0.0,-0.5310068408318771,-1.538963664035578,0.0,-2.1918590894279424
73,0.0026404515180890272,0.04688794467873617,0.06971864860314707,0.28991689405541765,-0.019097934917020495,-0.1967158450101104,0.1970979350067573,-0.013367964800373115,0.09794274102092403,0.0,-0.7722595153738836,0.0,0.0,0.0,-0.30886857595175893,-0.46339093942211684,0.0,0.0,0.13174541770865644,-0.4229353917177832,-0.4810695413647543,-1.510740250110011
146,-0.29130090842369516,-0.046673540290181253,-0.16708581674923906,0.2806988908590258,0.03099526555543283,-0.024370767159724836,0.06466692761109233,-0.016315325308687244,0.09482861929050265,0.0,-0.7477052695636955,0.0,0.0,0.0,-0.20493163680177517,-0.5427736327619167,0.0,0.0,0.0,-0.4919096667221811,-0.25579560284151115,-1.5442492889376684
147,0.9884873127027579,-0.4081713393060033,0.2617878418253638,0.32456585285967204,-0.8370450063667968,0.43849954618415,-0.4665216550421763,-0.45496547589884007,0.10964821272124364,0.0,-0.8645548892656505,0.0,0.0,0.0,-2.0644959643658787,1.1999410751002404,0.0,0.0,-0.02219027181786791,0.0775631863286279,-0.9199278037764034,-1.2788570393580179
37,3.486386046942907,0.19351781529855197,4.0321127559732455,-0.057193738727117166,-4.428117431905196,-0.35202702082467446,0.08220864090887588,1.820909207367392,-0.019321783776759388,0.0,0.1523485173077927,0.0,0.0,0.0,-2.6279470870127057,2.7802956043204845,0.0,0.0,0.0,0.1523485173077927,0.0,3.1818465493693173
19,-0.3514208120219574,0.0165506963468169,-0.1365080725427875,0.054112863133378326,-0.08158032598799209,0.016848451650576825,-0.023006937980675195,0.025887256374034773,-0.044921759643206445,0.006662812808640608,-0.40267952170087223,0.0,0.0,0.0,-0.12110909722770372,-0.27490761166453287,0.0,0.0,0.0,-0.39601670889223545,0.0,-0.8198597982797222
38,-0.2630029148105492,-0.0009092969026567894,-0.083106979190068,0.04531557778223425,-0.16855769341330432,0.026202114732146307,-0.03042034858892521,-0.18180882250510644,0.05221794298669332,0.0,-0.4117283519368691,0.0,0.0,0.0,-0.19065024936740127,-0.22107810256946564,0.0,0.0,0.0,-0.4117283519368691,0.0,-1.1879428829419967
76,0.12203966938170839,0.2656837966841732,0.19385594829755276,0.19709266438030248,-0.20731256565800887,0.39257867179843275,-0.28329534722534344,-0.1528522491052772,0.06658389414462379,0.0,-0.5250010903089548,0.0,0.0,0.0,-0.13881840876636306,-0.3861826815425917,0.0,0.0,0.0,-0.5250010903089548,0.0,-1.2143867144657106
152,0.34419673826933594,-0.16281964833228932,-0.3594361282104177,0.1624296041869862,-0.2708599477092405,-0.36405273709523867,-0.23347165792551855,-0.14068682123489432,0.05487365856636295,0.0,-0.4326681541636428,0.0,0.0,0.0,0.017177112700531308,-0.4498452668641734,0.0,0.0,0.0,-0.4326681541636428,0.0,-2.063687695189703
153,-1.2040548101556303,-0.6989262942975203,0.8881112669630429,0.11032766779269734,0.4029440607464631,-0.6769191393807777,-0.15858182776191665,1.8850823571432656,0.03727204042134006,0.0,-0.2938828092081912,0.0,0.0,0.0,-0.46184745068418404,0.16796464147599297,0.0,0.0,0.0,-0.2938828092081912,0.0,-0.5233158634679445
77,-0.026481992799235115,-0.19393456845892548,0.051728045463116185,-0.08977962707439634,-0.10267351811877873,-0.26315503416286257,0.1939278168881343,1.506368912796479,0.03361155432591582,0.0,-0.2650205863561491,0.0,0.0,0.0,-0.20074174469612138,-0.06427884166003371,0.0,0.0,0.0,-0.2650205863561491,0.0,-1.062283845591508
154,1.2981381571879356,0.11941549791661475,-0.08185459640788155,-0.12546806345790612,-0.45686463687243944,0.4049228232355737,-0.3320878853925344,0.16593130276468254,0.078051774673519,0.0,-0.6154231038986799,0.0,0.0,0.0,-0.4413266362372901,-0.17409646766138998,0.0,0.0,0.0,-0.6154231038986799,0.0,-1.6703742751142219
155,-0.5890481023616253,0.250238291376448,0.025620473407676835,0.06796512307114509,0.1948768215821841,0.028800691815468658,0.3384291122452684,0.8518778089059704,0.022960684885579598,0.0,-0.1810405467272145,0.0,0.0,0.0,0.26004797648136857,-0.4410885232085818,0.0,0.0,0.0,-0.1810405467272145,0.0,-0.7463830548991254
39,0.3491598346363817,2.674398740110208,3.1208459125752106,1.9238894334223131,2.4819479800812023,5.7565672109030555,-1.4666351991911264,3.273779631823066,-4.433412894929921,0.5984464463212849,-2.485327086806843,0.0,0.0,0.0,-1.3378763308973745,-0.5490043095881763,0.0,0.0,0.0,-1.8868806404855465,0.0,0.41573644932497045
5,0.15869802637189823,0.08289894273470352,-0.03043251892271372,0.060810192639364935,0.106470985904328,-0.12474859959391432,0.2236975552831311,-0.004811259658259828,-0.0958663612842722,0.09586729773892057,-0.4941503038089585,0.19156069914985874,0.0,-0.1331539643960761,-0.2263149384671965,-0.23037480235662253,0.19156069914985874,0.0,-0.1144745903615073,-0.47536911485838734,0.0,-0.8352887988485167
10,0.07270797084415,-0.03146491485823972,0.024439643785875317,0.05965993638934826,0.011125254141168422,0.18797155051343145,0.06775244026382689,0.03225896031681472,-0.16653669274512417,-0.1045313803857412,-0.6079398840855492,0.0876542796018332,0.0,-0.2009713861401309,-0.27840796348543195,-0.3207461944475673,0.0876542796018332,0.0,-0.3305774995534207,-0.4695480445197065,0.0,-0.9277858700049486
20,-0.05164395459463821,-0.05326496025210481,-0.07476377563713658,0.17600033539879062,0.051465709730649525,0.01533585858727371,0.06081772342089957,0.031479831104266116,-0.5258047678120613,-0.30626243091286415,-0.4973313823637356,-0.0809263760852773,0.0,-0.07890712127505564,-0.11991221003758804,-0.5238481058786812,-0.0809263760852773,0.0,-0.44271547561498703,-0.2799519615763381,0.0,-1.3823269892805277
40,1.1314652562164147,1.032723176814362,-1.438440004816085,0.10210835195584175,0.9700982235570659,0.0441393365114084,-0.6042923506988394,-0.08167288492616515,-1.3023427523446214,0.04288132013112582,-0.3930080947493845,-0.2141910506067264,0.0,0.0,0.7435271850741945,-0.8794629090857317,-0.2141910506067264,0.0,1.1081351826935382,-1.2440709067050877,0.0,-0.8221386555116155
80,0.41323319189838204,-0.09042599178800645,-0.743179503272355,0.1544006547789379,0.6837095867036415,0.06547048906825705,0.7986926015441137,0.17675445757533104,-0.8196005506876931,-0.755670356738872,-0.45598941236345214,0.12612081256280464,0.0,0.0,-0.13969691104818402,-1.1980836706169482,0.12612081256280464,0.0,-0.5449756985254716,-0.7928048831396594,0.0,-1.7050001648945279
160,-0.308801114267861,-0.025565785501728427,-0.38959339655445824,0.24445144593720156,0.33832101814694765,0.038523985111736,0.7857742367992052,0.22213612095673954,-0.8265277432040702,-0.775499423095816,-0.5135852920123833,0.11890895388075498,0.0,0.0,-0.13122852176896177,-1.2767651472200023,0.11890895388075498,0.0,-0.5945800187163873,-0.8134136502725628,0.0,-2.5947184764167552
81,0.8823692862098705,1.2919755182736437,-0.24393346899564242,-0.994167370776911,0.2516510480307103,-0.6771156543856862,-0.29647038461222014,-0.0655705311592618,-0.06172280895447441,0.2788316846503839,0.41946284309751986,0.0,0.0,0.0,0.08633074347119671,0.6119637842767048,0.0,0.0,-1.186209700048259,1.8845042277961563,0.0,2.594546187868974
41,-0.1379167769030595,-0.09622534115350415,0.010977020419663709,0.15482314324582028,0.05043873060380747,0.013429943516243855,0.22291435027114154,0.021092300776162753,0.09226578179063152,-0.2548952662065169,-0.47260252677441206,0.0,0.0,-0.17802447733806667,-0.1801428229832368,-0.36933049265962575,0.0,0.0,-0.3716926974437043,-0.3558050955372262,0.0,-0.9689304750706462
82,0.08893591503068443,0.027783722762702093,0.04566503260058929,0.05605298289488748,-0.07700846214064339,0.0726364564092878,0.03111089112598266,0.046241678421599826,0.0985875726767949,-0.18660083297150645,-0.5907430549333981,0.0,0.0,0.018746134596923304,-0.5991623954165306,-0.1969276270852943,0.0,0.0,-0.35160607547083783,-0.4257378124340634,0.0,-1.0915374584650626
164,-0.057827523970953594,-0.041420967394677446,-0.1132855213891176,0.10098659400008035,0.12841381219678868,-0.17653408817939117,0.18903643051371172,-0.20137901790609014,0.09253801506157956,-0.24134470468671837,-0.48829959483159396,0.0,0.0,0.0,-0.38536068791248856,-0.344283611605826,0.0,0.0,-0.22392625865655616,-0.5057180408617565,0.0,-0.8729018450356066
165,-0.032629663876666666,0.20347989985752948,0.3670348406169121,0.5249152586061121,-0.2912705249487703,0.13600172699324314,0.6888388721466209,-0.015258189716457541,0.11909076500389096,-0.49512096610994294,-0.4438866163688958,0.0,0.0,-0.4356661782241737,-0.04238601710664363,-0.4609553871480187,0.0,0.0,-0.8272077525963218,-0.1117998298825113,0.0,-0.5534428224873176
83,-0.47425359460396416,1.0311023984457586,-0.16430508800234359,-0.12391368326589705,-0.7768900190724715,-1.1695835968806485,0.17810997703622083,-0.31025343448166914,-0.04186180949752047,0.0,0.33007224811405106,0.0,0.0,-1.8854773438992765,1.0536128777668536,1.1619367142464667,0.0,0.0,0.1714266944193169,0.1586455536947349,0.0,-0.3091907537924078
166,1.7465031287058106,1.1922780092508052,-0.5153482793050329,0.012560507705134009,0.2652320560653149,-0.24665056953753978,-0.01805411379891006,0.01241982076399882,0.004243321374090576,0.0,-0.03345776597400439,0.0,0.0,0.03387940405910988,-0.04864933509815317,-0.018687834934962136,0.0,0.0,1.215016882704005,-1.248474648678004,0.0,-0.8298017912948844
167,-6.485471490808825,0.9298429956446329,1.1365477336402363,-0.06421413391081598,-1.4095807126367608,-0.06116115396970785,0.0922995557457063,-0.012864920114918802,-0.02169348670763556,0.0,0.17104893488767087,0.0,0.0,0.0,-0.07419901409126513,0.24524794897893482,0.0,0.0,-0.05673929705062184,0.22778823193829245,0.0,0.09898058677272448
21,0.08481894343035086,0.1729184342520765,0.6326099784749348,-0.09507862918785394,-0.006303461763814445,0.09627467527506693,0.0007008737650794873,-0.06788883036752089,2.13412390568337,-0.2936988471910368,-0.1128695273805529,0.577265478769535,0.0,-0.13543569812635828,-0.7470359979989973,-0.10136215721575974,0.577265478769535,0.0,-0.5756129729199818,-0.40822088042114424,0.0,-0.2817024097276092
42,0.006573634911693124,0.47707750783609715,0.39566351940095507,0.7765388368623104,-0.3362871235141503,0.823288870372734,-0.07130297251535418,0.016707377677702306,0.21271858485253484,-1.2644759572893174,-0.623672901939037,0.0,0.0,-0.26639320071156725,-1.1037926099314663,-0.5179630485853135,0.0,0.0,-1.2970792815042849,-0.5910695777240745,0.0,-0.8809107083202088
84,0.0840278775550023,0.26949072366568694,-0.12807426928541657,0.11875471029126107,1.436428280347947,0.11591545598232064,-0.13000580171908396,0.1083072148428082,0.2781359103459055,-1.5413993352987938,-0.8401079230702786,0.0,0.0,-0.19448899886486176,-1.122142727420009,-1.0648755320842025,0.0,0.0,-0.8278392636416869,-1.553667994727377,0.0,-2.022234386630453
168,0.4545256976732455,1.6826296564767504,1.2010722574417185,0.29894150943480885,1.5054674671535706,-1.1671080067159747,-0.08268279940966931,-1.7000408002850924,0.17985933881703783,-1.0128666950586407,-0.5469548574440479,0.0,0.0,-0.1652238767486125,0.03189863929268878,-1.42649631504675,0.0,0.0,0.23868559828854827,-1.7985071507912356,0.0,-1.7287491536718083
169,2.1466276583527963,-4.621682785816015,2.4827104535017073,-0.14690465905167738,0.2539053609685019,-1.7772736313951352,0.21115654672343553,-0.17857879100357205,-0.04962886010194205,0.0,0.3913139355850345,0.0,0.0,0.0,1.6432831500233769,-1.2519692144383405,0.0,0.0,-2.1922891612864954,2.5836030968715167,0.0,-1.1011386528222045
85,1.9385945081615528,-5.267581140417017,0.48398147596059116,0.20208493807616654,-0.21703325096914253,-1.9320993727075606,0.7361679888753618,0.3380173731831844,-0.25634561945655876,0.47307659225053206,1.5481588947922942,0.0,0.0,-3.501532052323634,2.7467703012973326,2.775997238069127,0.0,0.0,2.2736937090467872,-0.2524582220039732,0.0,-0.031210679874878244
43,-0.37528475097021297,-0.7224923459288151,-0.8212097628099436,-0.24682444784729174,0.9233609362325664,-0.35619793259153404,-0.1649767066515113,-0.010870100448707308,1.0104405768074944,1.9331218146691902,0.44572097977998104,0.2787240375711743,0.0,0.0,2.2794241731987688,-0.1793054163207648,0.2787240375711743,0.0,0.9295601824409242,1.170558574437069,0.0,0.4460447696669937
86,1.3562622287291854,3.6319727900413885,-0.9226688775973536,1.1644678053790203,3.654968656044833,1.233322220318877,-0.8599167771946317,-0.23419676411384546,-1.2468999023709568,0.17922200214804102,-1.5239239101393833,-0.033960610126459526,0.0,0.0,0.0,-1.3107412978648827,-0.033960610126459526,0.0,0.8646821644939167,-2.175423462358791,0.0,0.03493982366974058
172,-2.7859475471320043,-1.6949897272327366,-1.9781291846204285,1.1512237081415166,1.1744054439179452,2.0561447116890976,-0.7876999653783653,-1.1618967487670457,-2.07986610887512,0.2179258146539751,-1.375047006609176,-0.0314980207656376,0.0,0.0,0.0,-1.12562317118956,-0.0314980207656376,0.0,-0.5422587647187312,-0.5833644064708329,0.0,-0.7345397090070249
87,3.0969026782328246,-1.1301209360804494,-0.39371642349648456,0.38529784357916314,-0.4646798614339593,0.2967183597875314,0.1590272629979364,0.847054202961648,0.9748905841307153,0.9278736844838251,0.6553969253915058,0.09017797416597226,0.0,0.0,0.6670008668113521,0.8260917688980123,0.09017797416597226,0.0,0.12557580492699316,1.3675168307823762,0.0,0.38687497129692594
175,1.427462563047154,0.17315615930172065,-0.3386007985358689,0.23194767944972583,-0.3215539302909065,0.5972385465506972,0.18898594655870898,0.5618987137838786,0.9067435251620626,0.8510926538629852,0.6810693784723483,0.09467574203584433,0.0,0.0,0.6388949771363972,0.7985913131630964,0.09467574203584433,0.0,0.10208816293547465,1.335398127364014,0.0,1.6567771412307757
11,-0.056859781883709555,0.023288242369906845,0.01966692391827339,0.005887713354671163,-0.01075904951285933,-0.11012726004304525,0.016327569604456815,-0.06166105269102802,-0.05941175534891161,-0.3077136692044087,-0.10520551994678091,-0.04790311869369921,0.0,-0.12779193721517523,-0.13025666132127556,-0.10696747192103971,-0.04790311869369921,0.0,-0.3839873281843418,0.018971257726846873,0.0,-0.10723114117085236
22,0.053030450790169534,-0.02179081358662901,0.01076355961523394,0.026738242038188403,-0.01400699993806149,-0.02332038119608277,-0.1099226347173696,-0.029880184518442852,-0.023690577528853358,-0.15841410723465385,-0.2517516060866289,-0.02694087658841061,0.0,-0.12695223000325773,-0.11783267446184632,-0.13843993226776827,-0.02694087658841061,0.0,-0.18050746698299075,-0.20271736974988278,0.0,-0.6489686187825472
44,-0.5975094201192637,0.011925880140453302,0.0022740504722487762,-0.13093097008993743,-0.3505493508812439,0.6182636007595371,-0.42337828256139376,0.09257333700801908,-0.5446956052393348,-0.5570951389624047,-0.22750673372934793,0.0,0.0,-0.6048303490124425,0.02091444570087838,-0.20068596938018643,0.0,0.0,-0.5356328779743322,-0.24896899471742204,0.0,-0.764954074690163
88,0.31276205037133564,0.07010248385376795,0.0591541935405006,-0.31661872585210793,0.7843175616351121,-0.10421429105059922,-0.5316070045058833,0.02557811861141536,-0.3479944784266046,-0.4089894902009991,-0.576181144315167,0.0,0.0,0.0,-0.20840795323632028,-0.7767626812798406,0.0,0.0,-0.361233852656161,-0.6239367818599992,0.0,-0.7874215201238888
176,0.3271749022696013,0.058576546558657065,0.01813926459285545,-0.1809200875014694,0.8695598764350492,-0.30842297623856585,-0.7489092731751048,-0.01574602243623688,-0.3168203154117896,-0.4261978960392867,-0.9616758858999185,0.0,0.0,0.0,-1.3588186440886545,-0.029055137850554195,0.0,0.0,-0.564941046562362,-0.8229327353768462,0.0,-1.4172000153575233
177,3.4023776857263393,-0.25421449033516585,-1.2689401734903993,0.03460428991501992,-0.5281863108580539,6.594600240330162,-0.04973921458611988,4.624591880536829,0.011690381191487144,0.0,-0.09217638815667756,0.0,0.0,0.0,-0.09217638815667756,0.0,0.0,0.0,-1.4518696752432843,1.3596932870866167,0.0,-0.015176384457146863
89,-0.224526454487724,0.14604460233483035,-0.30426175091025276,0.010857877091155663,-0.23441378864066487,-0.9247850624496584,-0.015606801350727785,-0.07784141028094099,0.003668120988398919,0.0,-0.028922422502230333,0.0,0.0,-1.1993128939334226,-0.11548972089739228,1.2858801923285752,0.0,0.0,-0.028922422502230333,0.0,0.0,-0.23452640918562478
178,2.4088147875489723,-0.7073834622611613,0.09567523310259132,-0.07927638773588419,2.413296126008408,-2.146541616018944,0.11394960771889953,-0.6821127526127365,-0.02678197398046766,0.0,0.21117067003968315,0.0,0.0,-0.33520553889749183,-0.041304259259095366,0.5876804681962684,0.0,0.0,0.21117067003968315,0.0,0.0,-0.03008496022655982
179,-3.295633910049882,0.4314085481102219,0.5711285065323675,0.1952731315697805,-0.8009259798896866,2.0695197192747115,-0.2806800029101934,0.31169454433730087,0.06596920064281703,0.0,-0.5201543512769359,0.0,0.0,0.0,0.16878104072127897,-0.6889353919982133,0.0,0.0,-0.5201543512769359,0.0,0.0,0.590217239457631
45,0.030288353850132066,0.08995608662095163,-0.07513845965765258,0.014550133121342354,0.09562075161295044,-0.11399050125543024,-0.005099653798287333,-0.150391800904594,0.10343538031514436,-0.06567073474152195,-0.26492355666163714,-0.022551185220439036,0.0,0.0,-0.18920038457072816,-0.11884272161199298,-0.022551185220439036,0.0,-0.11804938155613283,-0.18999372462658992,0.0,-0.3950400445721085
90,0.01297006504092293,0.06607905873064622,0.08373752212880713,0.2573684517241595,-0.024338170034242112,-0.026890139799886924,-0.05727830053957235,-0.13049042784675743,0.14678511305744138,-0.2184758611757967,-0.19107502367467868,-0.0628810625716286,0.0,0.0,-0.17082204024042608,-0.17584778203842027,-0.0628810625716286,0.0,-0.20254951782692684,-0.14412030445192134,0.0,-0.8317531904238137
180,2.268027603158008,1.2397054252608948,1.3169742288725326,0.8112172003985015,2.2352752806806877,-0.5831179670301284,-0.901113564157635,-1.317765650861324,0.21179186582415493,0.0,-1.669937781571256,-0.021171961207098914,0.0,0.0,1.4023932907385548,-3.0511591111027045,-0.021171961207098914,0.0,0.3474083509484754,-1.9961741713126293,0.0,-1.3674169421277171
181,-0.06759490852277215,-0.06379366479636238,-0.01800644273210597,-0.011818562495858057,-0.07510175559934655,0.04425006789096865,-0.06245203469929076,0.5782423954499543,0.12469111181967574,-0.03660591336637655,-0.12996537427675176,0.0,0.0,0.0,-0.11395077395088048,-0.052620513692246844,0.0,0.0,-0.1955793680106557,0.029008080367527226,0.0,-0.4708699291752554
91,-0.23284928947936662,-1.1343494906732723,0.40648138385737054,-0.5308613116261315,-0.24430595369822494,0.8047146524970574,1.1665704777388959,-0.013023517109845475,-0.15846831607473513,-0.21692597062946356,0.5741958293404241,-0.27581524683208813,0.0,0.0,0.755836864469149,-0.12275175892609919,-0.27581524683208813,0.0,0.4191406944526387,0.2139444110904114,0.0,-0.10687202155102823
182,-0.4101864216640442,-1.2214838356586708,0.30792548367696604,-1.081638004401424,1.3248488500336097,0.4559564630249543,1.7414307465619308,-0.323129855903539,3.9522480728768588,0.13239979928296233,0.0033661295906331394,-0.5713570076154886,0.0,0.0,1.3923751983661246,-0.685252261877046,-0.5713570076154886,0.0,0.637202296511119,0.06992063997796154,0.0,-0.7819141621632617
183,0.18935658604756894,-0.4253873239368549,0.05144457557550433,-0.19484796614240574,0.12311869488774008,0.3302589495551408,-0.08831891852028305,0.19620524580091872,-1.2711742864191915,0.292413562149966,0.13103548928715295,0.05866344253517372,0.0,0.0,0.2844543009146331,0.08033130798731396,0.05866344253517372,0.0,0.4328719236829522,-0.06808631478100537,0.0,0.5048594824388286
23,2.1045619175817687,3.2295599521770364,0.5389657174715029,0.30417704771679205,-0.54335080995782,0.3106934757076387,-0.43721537086044676,-2.6877707260544517,0.1027602544725815,0.0,-0.8102446745056744,0.0,0.0,0.0,0.0,-0.8102446745056744,0.0,0.0,0.0,-0.8102446745056744,0.0,1.681104649405268
46,2.786653311749376,-8.213180911366559,-4.885476893628082,-0.4237970259816998,0.7570277213659826,-1.0006890071020764,0.6091536993832026,-1.3994498427834487,-0.14317151988124516,0.0,1.128879663835533,0.0,0.0,0.0,0.0,1.128879663835533,0.0,0.0,0.0,1.128879663835533,0.0,-2.256925492209202
3,0.047637695859785695,-0.2025275128328739,-0.23558593790939186,0.2480924188327949,-0.16734913316673186,-0.10274763088413297,-0.2321151375912125,-0.006184756604763393,0.008435301295700463,-0.20950140116125415,-0.04164993212072374,0.0,0.04211103529892703,-0.12142267706213093,-0.06864572752017364,-0.10319396399859987,0.0,0.0,0.3556204897939661,-0.6067718230759453,0.0,0.35373534121279915
6,-0.010108787422660302,-0.058632387730995494,0.09658482158326355,0.05678440056811801,0.035813385154785424,0.11161389619735791,0.023827103923039345,-0.012716970324131929,-0.04495891713209059,0.1806299914409573,0.15388051551240778,0.0,0.0,1.1077481098366941,-0.15937419885063606,-0.6138634040326931,0.0,0.0,0.2354113221394473,0.09909918481391747,0.0,-0.2606526414890292
12,0.244523182423422,-0.32907185789875226,0.1176681356348035,0.11714286495410535,0.12947483570878343,-0.513517006873713,-0.30569480532178617,0.14744598573389606,-0.03487515164532175,-0.3621162687386595,-0.8697273301544344,0.0,0.0,0.0,-0.7373985116801784,-0.4944450872129153,0.0,0.0,-0.47604475576341415,-0.755798843129678,0.0,-0.588662879396815
24,-0.15060374257804462,0.14290125390284303,0.4736214184951499,-0.22367317856343097,-0.7572146170220444,0.281290976797311,-0.23671397521342624,-0.4552287676191866,0.13407718961719706,-1.0120305934656666,0.0460922984007833,0.0,0.0,0.0,-0.453913255133478,-0.5120250399313979,0.0,0.0,-0.1472537026901937,-0.8186845923746888,0.0,-0.8663650891281156
48,-0.41618757439398846,0.3231244192393726,0.6502195636583541,-1.538366443453572,-1.2610237796149704,0.2888732547894353,0.21629883149202767,-0.6341466804445487,0.41859257845502734,-0.22314785651087066,-0.37454697745098925,0.0,0.0,0.0,-0.7403076008986472,0.14261276693678954,0.0,0.0,0.13809801843323002,-0.7357928523950876,0.0,-1.296957349007452
96,-0.05882601330362552,-0.31653646450758377,-0.4661730387684972,-0.021937687559236724,-1.1571770104270902,-0.7557015794229712,0.9086795334505526,-0.41068360440686724,0.12429715492040182,-0.7632212914368005,-0.9680700092912998,0.0,0.0,0.0,-0.5067122952525518,-1.2245790054755537,0.0,0.0,-0.07938806851259796,-1.6519032322155072,0.0,-1.8872681269110594
192,-1.3811894887407012,-0.9740823284710385,-0.3395603140046228,-0.011466399941086582,-1.3663005839064146,0.6232476711193099,0.6112656031428423,-0.36744485511612623,0.17156490970794364,-0.5324713432218489,-0.7174293788071624,0.0,0.0,0.0,-0.4044255086124382,-0.8454752134165822,0.0,0.0,-0.6473613592159548,-0.6025393628130669,0.0,-2.598196727366764
97,0.16945229029701872,0.08859796758108165,-0.6009348713920348,-0.8601854484792022,0.2551500866442651,0.9190529629120643,-0.9554340418892698,0.0009688482156940072,-0.024359387397570587,0.39466576677992227,-0.39922591535184554,0.0,0.0,0.0,0.0,-0.0045601485719249536,0.0,0.0,-0.39922591535184554,0.39466576677992227,0.0,-0.040172063989471596
194,-0.29157457670324294,-0.5916652028754421,0.30792347916771223,-0.004721016675847192,-0.1325029086641717,0.35254605793054095,-0.034409811595634915,0.09112324660846535,0.2285069688619978,-0.08159687888775032,-0.3472995531432634,0.0,0.0,0.0,0.0,-0.42889643203101324,0.0,0.0,-0.3472995531432634,-0.08159687888775032,0.0,-1.1945225018334773
49,1.31640445613136,-1.3136976489043821,0.37541568544859083,0.4511260672346101,-0.436860740411187,-0.3684611711985648,-1.208270312616639,0.15685587751858066,-0.14148735153389427,-0.2698588993713167,-0.46842610159969705,0.0,0.0,0.0,0.0,-0.7382850009710137,0.0,0.0,0.20189921480590972,-0.9401842157769205,0.0,0.2755273053167686
98,-0.2908302489373944,-0.9442002976177266,-0.9276756415901736,-0.08304399308107993,-2.6588906271871386,0.5039301460564808,-0.9565906887270998,0.3248103932872417,0.13901099554607013,-0.8095660757738521,-0.7192426964384571,0.0,0.0,0.0,0.0,-1.5288087722123134,0.0,0.0,-0.9682935802107845,-0.5605151920015254,0.0,-0.8057492132050004
197,0.7548069324473513,1.2766519296725758,-0.17416433905189463,-1.2921173850494247,-0.4800161578036243,-0.2082695930929704,-0.26051825696625497,-0.029519424599739566,-0.15316175313025393,0.13894122913373755,0.0,0.0,0.0,0.0,0.0,0.13894122913373755,0.0,0.0,0.3974168848179224,-0.2584756556841845,0.0,0.03442718887397467
99,0.6966025038652085,1.1336070635998805,-1.593587722503875,0.8218606463279776,1.466841915384439,-0.6280203316948336,-0.0972285444773014,-0.21019530224386196,-0.12037002616090402,0.26135896472018866,0.7279825975864485,0.0,0.0,0.0,0.0,0.989341562306635,0.0,0.0,1.2483053042905565,-0.2589637419839068,0.0,0.6319949105806856
199,-0.8174109492946424,0.700248889619772,0.44845952816836426,-1.5518236810712924,-0.6301466027681323,-0.412158074695981,0.19243571242407173,-0.1830588190935412,0.11004108818941755,0.11285365061715644,0.7487626469055105,0.0,0.0,0.0,0.0,0.8616162975226711,0.0,0.0,1.1805013957129922,-0.31888509819032423,0.0,0.942407474693149
25,0.20344952563446558,0.13129469406759062,0.03843964079184073,-0.14711007619486943,-0.0008601087639883159,0.0008581539829253379,-0.4923909165013843,0.2163231062165151,-0.15269025874548794,0.0493232432310931,-0.7411080283159194,0.0,0.0,0.0,0.0,-0.6917847850848297,0.0,0.0,-0.9232941015366233,0.23150931645179695,0.0,-0.5889639193082136
50,1.0468457315005957,-6.832986748006572,1.5423498016027328,0.09858912975583538,-0.266595801105459,0.5959144320423035,0.745411688913205,0.08446288718063948,-0.7040769318383681,-0.3975476324550611,0.0,0.0,0.0,0.0,0.0,-0.3975476324550611,0.0,0.0,0.5543981526896313,-0.9519457851446934,0.0,-0.40752047213272546
51,0.21942287019201154,0.22436559004276968,0.03983402351283553,-0.00337204317014211,0.006073536686909003,-0.04345532956779927,-0.40141675386655734,0.13609116460001344,0.49945543884478455,0.038167552689436904,-0.6112789163128708,0.0,0.0,0.0,0.0,-0.5731113636234323,0.0,0.0,-0.4909122017948215,-0.08219916182860941,0.0,-0.27050832263129293
102,-0.037760477855897784,-3.3481678377263067,3.2920038144692483,-1.25987090141048,-1.0462913975272983,2.5151197132377074,2.4285902840711624,0.37591856236258747,0.24230744241565794,-1.432738455945972,-0.4778087280604716,0.0,0.0,0.0,0.0,-1.9105471840064423,0.0,0.0,-0.03543798695745283,-1.8751091970489835,0.0,-1.1953073012470912
103,0.18191744114222305,-0.21451036696751535,0.24520658040481472,-0.21394031936430302,0.14837298449366443,-0.43304258092305065,-0.37193227639938964,0.14094115496237244,0.37045775844486006,0.042257388109309714,-0.5424271809679949,0.0,0.0,0.0,0.0,-0.5001697928586806,0.0,0.0,-0.42284829206811364,-0.07732150079056804,0.0,0.16845579531966265
206,-0.28121239704443746,-0.5783697264399844,0.22154300053317424,-0.7989168761177563,1.0138779817692691,-1.027370584606463,1.012202971118472,-0.15522115500802844,0.3672022862127158,-0.26964911315704787,0.9388355702949162,0.0,0.0,0.0,0.0,0.6691864571378693,0.0,0.0,-0.2601942590930588,0.9293807162309305,0.0,-0.07149444860982401
207,0.282043106498531,-0.2889910506719611,0.008559943020651817,-0.0749151754377334,-0.05543631402592685,-0.5174208537339587,-0.6388666918610153,0.3946991222020896,0.12947702574064573,0.10745570119895174,-0.8105582556877344,0.0,0.0,0.0,0.0,-0.7031025544887897,0.0,0.0,-0.3226496830585992,-0.3804528714301893,0.0,1.1590673838676242
13,-0.16649181188560627,0.14976311834839892,-0.19972473476562277,0.1186049995667386,-0.8341190887376794,0.02066615745298609,-0.1559663035785287,-0.05470876169191511,-0.08579040741279849,-0.05879508073284239,1.0931477657002127,0.0,0.0,1.3926832785093581,-0.3587827071098434,0.0004521135678554733,0.0,0.0,0.3258327434685688,0.7085199414988024,0.0,-0.18209660049637963
26,0.10392231682871754,0.4479836410940962,0.6280845871854106,0.21728508024870768,-2.352456174658577,0.6550581410606945,-1.058176367532488,0.254987534782611,-0.06039670077134894,0.6591335545125868,-1.2008980561616052,0.0,0.0,0.0,-1.026710447277875,0.4849459456288568,0.0,0.0,-0.32467205777627633,-0.21709244387273566,0.0,0.132454754804497
52,-0.03922055926707582,-0.18858678284680622,0.40147930937187615,0.25326949902824125,-0.8233901165111507,0.4057227828175454,-0.4735057902756586,0.028007461916686415,-0.09744024036270077,0.6573450567253273,-1.5237217574650412,0.0,0.0,0.0,-1.5635190929394223,0.697142392199696,0.0,0.0,-0.2380720554923051,-0.6283046452474189,0.0,-1.442885847427678
104,-0.3907875682929915,0.4842331104307344,1.0892429081859092,-2.041941317514401,-2.523863985344844,0.6501851172031041,0.4465620963919312,-0.3129347778348015,-0.5977267389909287,-0.622957266001335,-1.3370758641638767,0.0,0.0,0.0,-1.3624357673606693,-0.5975973628045272,0.0,0.0,-1.6920692040594858,-0.267963926105714,0.0,-1.2929140936540477
105,0.07263275096439685,0.07498630778863433,-0.02156435746969025,0.2765947246761717,-0.39545943437520326,-2.3225654545918846,1.865733045938981,-0.0309116352307667,1.161596144796392,-0.9625850743249484,-0.22664039255028384,0.0,0.0,0.0,-0.9625850743249484,-0.22664039255028384,0.0,0.0,0.9396281399396033,-2.1288536068148347,0.0,-0.7948718249648952
210,0.9663917363753797,-0.515779171548308,-5.29723460321533,1.0523687175459149,-0.8415239816409728,-2.594418295405503,-0.7343492962688666,0.38654923588239887,-2.8033744749092517,-0.5540319755209206,-1.2653675108322713,0.0,0.0,0.0,-0.5540319755209206,-1.2653675108322713,0.0,0.0,0.04989903092744274,-1.8692985172806271,0.0,-1.999678812677202
211,-0.44914429349205603,0.0018731221358010662,4.987164598845043,-0.6075087674583363,-0.984351591986781,0.15422030788839922,0.2177454636610938,-0.46631682642254507,0.6716284590204167,-0.5772758441153284,-0.9277810234436845,0.0,0.0,0.0,-0.5772758441153284,-0.9277810234436845,0.0,0.0,-1.1463781168193496,-0.3586787507396616,0.0,-0.1408158661374806
53,0.6260707981720907,-0.9691376264116952,2.6696535466644553,-1.2486985003677376,-0.6388173168724246,0.3407860354687791,0.28184278070468105,0.7037572470990505,0.0031032198723109808,-0.12219081682384272,0.09772253005027189,0.0,0.0,0.0,2.388740093014817,-2.4132083797883825,0.0,0.0,-0.024468286773569263,0.0,0.0,0.7130863888145409
106,-5.958852390442955,-6.17653088827249,2.473295939316853,0.40184116629780275,-0.7178080161577319,1.6044969744097344,2.0070176777762234,0.22741595041891266,0.13575416296619416,-1.0703952432765054,0.0,0.0,0.0,0.0,0.0,-1.0703952432765054,0.0,0.0,-1.0703952432765054,0.0,0.0,0.22569843234440612
27,0.4835384471993036,0.04527434000821178,-0.18216023440279075,0.03845521513404117,-0.7690663977529693,-0.05471075987459797,0.22639744973218548,-0.02030884558308208,0.15421885052130538,0.2273633265735263,0.47744303691816853,0.0,0.0,1.2567890764023237,0.3313720645640801,-0.8833547774747069,0.0,0.0,0.08615944657128939,0.6186469169204039,0.0,1.4920680635202586
54,0.21594708517636182,0.0678650087773684,0.16495380025423564,0.22850717299527817,0.8117990392825432,0.3902949353194636,0.49527351634369954,-0.0889292550178781,0.14768947350478986,0.10819555844488193,-0.27067248109987574,0.0,0.0,0.0,0.714568098720108,-0.8770450213751048,0.0,0.0,-0.21030129999627178,0.04782437734127569,0.0,0.14587148649600423
108,0.2851070895731554,0.6744392320784074,-0.91550367707122,-0.021543599029812385,1.722431945214615,-0.16266968540254295,0.7791428850553913,0.016974997229641974,-1.3452836626343971,-0.45799532059512404,0.1959384120147928,0.0,0.0,0.0,0.5718368343434659,-0.8338937429238005,0.0,0.0,-0.8585675258545896,0.5965106172742662,0.0,-0.7051903816750867
217,-0.31694058878519155,0.24624330714450357,-0.14884273195792092,-0.26832585393796965,0.0945450834781749,-0.7474753254017845,0.33149850070518233,0.03693989683487284,-0.7856563072861975,-0.10732582595791444,0.24139681635520094,0.0,0.0,0.0,-0.10732582595791444,0.24139681635520094,0.0,0.0,0.24139681635520094,-0.10732582595791444,0.0,0.5331303871187172
109,0.37444422514883874,-0.26439488690879626,0.172108729922794,-0.20246031909567694,-0.7964274230633749,0.599766436219382,-0.6355034743917196,-0.8993270507511701,0.03026528788248393,0.6129571385740351,-0.4763536458991381,0.0,0.0,0.0,0.5572712035805204,-0.4206677109056232,0.0,0.0,0.4380160669552577,-0.3014125742803662,0.0,0.141138600981231
218,0.7699833993065316,2.2983352662012115,-0.11617063894950273,-1.3199742942868629,0.002586506487511603,-0.004590068619446103,0.49220086014243525,-1.0812595642929423,-0.18058034567536752,-0.21274796520107894,0.17289023715169222,0.0,0.0,0.0,-0.34582590276666675,0.3059681747172755,0.0,0.0,0.17289023715169222,-0.21274796520107894,0.0,-1.4065263777347987
219,0.04149712990713426,-0.12192013190943941,0.5513690364268705,0.7798817584728909,-0.5783108833817924,1.269687589310282,-0.46712561919942486,-0.4485084199836083,-0.02226017695171095,0.37371706336083615,-0.4291496938514295,0.0,0.0,0.0,0.37371706336083615,-0.4291496938514295,0.0,0.0,0.2092263021900515,-0.2646589326806426,0.0,0.8485516433644353
55,0.40396534001668394,-2.840847182320184,1.0231932049966603,0.8723750153987552,-2.5927828502775454,-0.9408481361236751,-0.4564481431375773,0.13773998785103606,0.3532339190320364,1.0014078029962776,1.6736819380502774,0.0,0.0,2.110712922197185,-0.7690066967182672,1.3333835155676677,0.0,0.0,1.984793081039825,0.6902966600067514,0.0,3.4591233018963745
7,-0.04290113192763749,-0.0746803392994218,-0.14621674030526136,0.018022067243552344,-0.1329866518371019,-0.3367933004735263,-0.10857107817667208,-0.2763527983249314,0.04280854232078269,-0.09774430166033635,0.19769711277383178,0.0,0.08236247811028413,-0.218553005701031,0.01813406098081026,0.21800927772343257,0.0,0.0,0.20219707221469985,-0.1022442611012049,0.0,0.9668814699986483
14,-0.14099697118741847,-0.03697765200435762,0.2592648002073124,0.10622655634527214,0.12590581281484614,-0.24651912996301906,0.17352164823444524,-0.21391415485607365,0.3486973108957776,-0.31402092528716685,1.1887884880876987,0.0,0.2898827328828526,0.019468460007371235,0.42170216599783034,0.1437142039124721,0.0,0.0,-0.0014768293992493441,0.8762443921997811,0.0,0.058307655204401995
28,-0.9035847976870071,-2.7781092150323974,0.0418175477916431,-1.3369769744732782,3.6979370473178568,1.1403703088821204,1.32464341527143,-0.3881782537756063,-5.930630368086158,-0.43564451835603757,1.6399743882928715,0.0,0.0,2.2464866464839504,-1.2030866712889194,0.16092989474181893,0.0,0.0,1.2043298699368292,0.0,0.0,0.14708670760914622
29,0.017337688784379014,-0.11521999520945421,0.10275772247192416,0.26329458904637854,-0.05346704344205048,-0.22820594753869133,0.4602271102252722,-0.19716505172033066,0.25123640722716617,0.17525915277557508,0.43928270958512977,0.0,0.299502560745403,-0.30343026661964767,0.36802817737912463,0.25044139085581735,0.0,0.0,0.09294328730198394,0.5215985750587171,0.0,0.6083066350049493
58,0.540277686643188,0.00872722574263501,-0.19089389418693556,0.4212598578516086,0.2877638496366993,0.17801302136568473,-0.367762466050625,0.1428875228622271,-0.9180654210447844,0.10135646372637691,-0.32934320378936516,0.0,0.0,0.5554837405856707,-0.14218583166415716,-0.6412846489845048,0.0,0.0,-0.2279867400629888,0.0,0.0,0.161127421617039
116,-1.1263493107951588,-0.5812105599182238,0.5357941687231601,1.286338845783434,0.29997023196914774,-0.5452629368700062,1.266630260251679,-0.26881588227137915,0.2966699751712052,-0.5836621574195117,0.319211117585331,0.0,0.0,0.319211117585331,0.038342785203335554,-0.6220049426228492,0.0,0.0,-0.2644510398341827,0.0,0.0,-0.36684675253980337
232,2.0748668214302017,1.7069799603556643,-0.9169394364101101,-0.23739303710485468,2.3607781753848953,0.20771090413950952,-0.19095965099372814,-0.8954681073920373,-2.6158063376130127,0.3477703378804177,0.8545415636083703,0.0,0.0,0.8545415636083703,0.8762853596427166,-0.5285150217623031,0.0,0.0,1.2023119014887853,0.0,0.0,-1.2838276542221565
233,0.7344751633055202,-2.550578915526849,1.623666278946255,0.5142804259979868,-1.3356862702497265,-0.1860337526653169,-0.6436198827821492,-0.38259597182501776,2.56868331395721,0.189340646102037,-0.5348343563245823,0.0,0.0,-0.5348343563245823,2.991506632107058,-2.802165986005014,0.0,0.0,-0.3454937102225492,0.0,0.0,0.39581518494484835
117,0.3383196707652708,0.08750820139146961,-0.03805190905479733,-0.392159664046472,0.095609410373725,1.6513379004550182,-1.7177881555080554,0.4644718694052023,-1.0315020206930332,0.7211860970603781,-0.6774280268384484,0.0,0.0,0.7036700252623634,-0.18558421907058192,-0.47432773596985506,0.0,0.0,0.0437580702219276,0.0,0.0,0.4049531698113531
235,0.7475753438723999,-0.3388864314417867,-0.2753797947542768,-0.30122951391286246,-0.012346793531908363,0.05939222929451632,-0.8494641245050094,0.8631811701794061,-0.08387946912530805,0.3875623300539632,-0.227526062423853,0.0,0.0,-0.4986130898485597,0.05576044957322907,0.6028889079054427,0.0,0.0,0.1600362676301147,0.0,0.0,1.3121550128266097
59,-0.37134878001501936,-0.23089681152046534,-0.44636151517039657,-0.7483242764484983,-0.4355529261824898,-0.11103945554805049,-0.16983821997607917,-0.489179297290764,0.20927018077735507,0.5863274100342393,0.5411907435888035,0.0,0.45125225840101063,-0.4175239873655616,0.2627547159590237,0.8310351666285727,0.0,0.0,0.9356339328311574,0.19188422079187786,0.0,1.3488017783252393
118,-0.20263280412716178,-0.09112588768137794,-0.26761178105595285,-0.9066413911457889,0.34166517869499835,-0.9709807385805739,0.25686292630420066,-0.13505940219229876,-0.29291408008120573,0.04892101537232835,0.4129103546947457,0.0,0.686585427054538,-0.9224095660598273,0.7991747378958928,-0.10151922882353294,0.0,0.0,0.5456857488281662,-0.08385437876109242,0.0,-0.04455028368721073
236,0.3804250289641785,-0.4244967151469918,0.15767820545582897,-0.8897189198388469,3.0149412829607067,0.3625479269453547,2.0922959899867304,0.3543546572794967,2.743173110202364,-2.7967409359097046,1.3627202649937595,0.0,0.0,-1.327843689777763,-0.20784100607177136,0.1016640249335876,0.0,0.0,-1.252794782097316,-0.18122588881862695,0.0,0.006551246555594581
237,-0.14525435562046257,-0.18785182352443022,-0.27678573311557175,0.7206855012256888,-0.2829285717452245,-0.4146746088626135,0.771790106237131,-0.13005880356487384,-0.2829231034394411,0.43259645795077667,-0.011785202429046494,0.0,0.5049924436602132,0.0,-0.03861986377478207,-0.045561324363704955,0.0,0.0,0.3733950924326749,0.047416163089054504,0.0,0.737544869257299
119,0.4403165354243249,1.6467356771809705,-0.9205694869650443,0.7081282130646062,-1.0054689648186734,-0.3796860259486248,-0.08693727033799209,-0.8729418822508466,1.2146133009534643,0.6103740892656397,0.8057348427247992,0.0,0.0,0.2697077720459854,-1.2105852780074284,2.356986437951875,0.0,0.0,0.8587913163779961,0.557317615612448,0.0,1.877193736049072
238,-1.3415599011428527,-2.3738605319051116,-0.42474295697118025,-0.023451861365468434,2.3206658272542646,-0.591904083579088,0.06305576963098242,-1.636596095245924,-2.2197286693211455,0.05812752488672602,0.3188351242069415,0.0,0.0,1.431568228665711,-2.5866750669260177,1.5320694873540028,0.0,0.0,0.15799096832587073,0.21897168076780005,0.0,0.10217614781263551
239,1.4175831031019173,0.1552986772864205,-1.0723842240661972,0.7090923829082707,-1.4545314322317122,-0.3515003949533185,0.1369990654176807,-0.30518283115845984,1.0873669117043092,0.6308192706518677,0.8933380301296567,0.0,0.0,0.2138458629360327,1.3405008975870862,-0.030189459741583383,0.0,0.0,1.7010719627872446,-0.17691466200571754,0.0,1.7846929296668423
15,0.6369538578976991,0.09721926152098773,-0.12135218984199315,0.08080735892520827,-0.13981353439478067,-0.05330568895722924,-0.32882546593489337,-2.007682536377889e-05,0.016600349448051166,0.2152312923034672,-0.21513679524497198,0.0,0.0,-0.21513679524497198,-0.002797952264444143,0.21802924456791054,0.0,0.0,0.24123413120229112,-0.24113963414379624,0.0,0.8067826056009294
30,0.1929019268324977,1.3792424470672466,-2.0838018740051343,0.050188736343391646,2.5767586284857096,0.5921581404136415,-0.1282026449092342,0.1560483388483884,0.6413909242294453,-0.1110444244866213,-0.6234396753174272,0.0,0.0,-0.6234396753174272,1.3361756746325792,-1.4472200991192026,0.0,0.0,-1.3128111759722199,0.5783270761681782,0.0,-6.03236839866288
31,0.5063526547287296,0.04352658935564795,-0.0873720864702736,0.0482728251385694,-0.14367063446864725,-0.18812732966047355,-0.19970966596401124,-0.04305579852880639,0.02275396436754319,0.2026538677511909,0.0,0.0,0.0,0.0,0.00102163368904154,0.2016322340621513,0.0,0.0,0.30433135091078223,-0.10167748315958858,0.0,1.4518089773105407
62,-0.12178085806190068,0.18351794198389773,0.08822046327519184,-0.06158103286637946,0.08660236763104286,-0.22672460574673078,-0.21179305599512097,-0.06518630645668892,-0.035542989325081716,0.30681714378202,0.0,0.0,0.0,0.0,0.14503104277104423,0.16178610101097418,0.0,0.0,0.07176400424765009,0.23505313953437057,0.0,1.415457708699737
124,0.1312695149928564,0.026623199979987786,0.1349388071311099,0.22020832533222742,0.02853745560835496,-0.15792374058411346,-0.1327726274818437,-0.052194244749003194,-0.012347153414449315,0.24566645920319047,0.0,0.0,0.0,0.0,0.23130793301917543,0.014358526184014822,0.0,0.0,-0.029321028139444063,0.2749874873426348,0.0,0.8850469134046852
248,-0.22344254890874973,-0.6643003340830735,-0.278557109544631,-0.059237772114454565,-0.469899585943266,0.2986176120090022,0.5490587246442342,-0.03846255024591652,0.5104529156234471,0.1810344909918366,0.0,0.0,0.0,0.0,-0.535993839267662,0.7170283302594993,0.0,0.0,0.1810344909918366,0.0,0.0,-0.1357967051670459
249,0.11858276153830949,-0.011805070614125847,-0.003165235342055853,-0.8485275339366778,0.03435204386074556,-0.511390628136024,-0.6396833694844919,-0.07248277035590127,-0.039656064490443114,0.34115994267571775,0.0,0.0,0.0,0.0,0.17731404901778183,0.16384589365793567,0.0,0.0,0.15681039102196284,0.18434955165375208,0.0,0.9673159996980436
125,-0.9217860278183228,-3.2475778130147392,0.41311663292421913,-0.2864880731816684,0.8753345118106203,-1.109985459796603,-1.3884478907826672,-0.1573255682726873,0.6933742160929608,0.7404957287061676,0.0,0.0,0.0,0.0,0.0,0.7404957287061676,0.0,0.0,0.7404957287061676,0.0,0.0,1.291714821243664
251,0.016722339612379504,0.594806333771015,0.4637815856909223,1.1529093448912968,0.03533263773820699,-0.6767926427092088,-0.8465798438828385,-0.09592629000429523,0.12542783422268663,0.4515032667524849,0.0,0.0,0.0,0.0,0.0,0.4515032667524849,0.0,0.0,0.4515032667524849,0.0,0.0,3.1895179116830015
63,0.28605045832700426,-0.6258226219080143,0.02502828572435375,0.35121281651973424,-0.23998721228838865,-0.2644969691882496,-0.33085141408530205,-0.03748890187405685,-0.010219466575631534,0.17645174917472606,0.0,0.0,0.0,0.0,1.0453281084234691,-0.86887635924875,0.0,0.0,0.6925491294368231,-0.5160973802620952,0.0,0.8296429011915103
126,0.28727503102823904,-0.8681489689535816,0.007366978447846177,-2.557416487957424,1.290959599673723,0.1787206766880376,0.22355639382179698,0.025331261570919465,-0.7147052000056795,-0.11922849668969457,0.0,0.0,0.0,0.0,0.0,-0.11922849668969457,0.0,0.0,0.3253073527008462,-0.44453584939053536,0.0,-7.3931374827387835
127,0.027784574153248053,-0.4227875026965217,0.0185017006744324,0.5804414114712768,-0.31488048067958885,-0.30457274652941063,-0.38098101536045215,-0.043169106410540926,0.09082813563880249,0.2031871822236874,0.0,0.0,0.0,0.0,0.8143350921959518,-0.6111479099722674,0.0,0.0,-0.2077877637152174,0.4109749459389017,0.0,1.7805494938407294
254,0.2123248091515124,0.8822494303763974,-0.7084047221562534,-0.4891504098845022,-0.24650114949468205,-0.02432938415498123,-0.030432905058247032,-0.0034483642593014837,-2.2751140414045157,0.016230667609030178,0.0,0.0,0.0,0.0,0.0,0.016230667609030178,0.0,0.0,0.016230667609030178,0.0,0.0,0.5313409007169749
255,-0.5990171884982106,0.9732591124669504,-0.276590032961474,-0.11448894688573885,-0.5868604055227498,-0.4681819679047073,-0.5856349379197119,-0.06635852164147275,0.07110159371599556,0.3123344945024811,0.0,0.0,0.0,0.0,-0.5092273725712578,0.8215618670737374,0.0,0.0,0.10224829606355826,0.2100861984389259,0.0,2.9823757577875094
